<?xml version="1.0"?>
<opencv_storage>
<myhaar type_id="opencv-haar-classifier">
  <size>
    24 24</size>
  <stages>
    <_>
      <trees>
        <_>
          <_>
            <feature>
              <rects>
                <_>
                  2 3 4 2 -1.</_>
                <_>
                  2 3 2 2 2.</_></rects>
              <tilted>1</tilted></feature>
            <threshold>0.0311111006885767</threshold>
            <left_val>-1.</left_val>
            <right_val>1.0000009536743164</right_val></_></_></trees>
      <stage_threshold>1.0000009536743164</stage_threshold>
      <parent>-1</parent>
      <next>-1</next></_>
    <_>
      <trees>
        <_>
          <_>
            <feature>
              <rects>
                <_>
                  10 0 3 2 -1.</_>
                <_>
                  10 0 3 1 2.</_></rects>
              <tilted>1</tilted></feature>
            <threshold>0.0125821596011519</threshold>
            <left_val>-1.</left_val>
            <right_val>0.9999998211860657</right_val></_></_>
        <_>
          <_>
            <feature>
              <rects>
                <_>
                  2 0 21 8 -1.</_>
                <_>
                  2 2 21 4 2.</_></rects>
              <tilted>0</tilted></feature>
            <threshold>-0.0607130303978920</threshold>
            <left_val>0.9899998903274536</left_val>
            <right_val>-0.9999998807907105</right_val></_></_></trees>
      <stage_threshold>1.9900000095367432</stage_threshold>
      <parent>0</parent>
      <next>-1</next></_>
    <_>
      <trees>
        <_>
          <_>
            <feature>
              <rects>
                <_>
                  4 14 11 10 -1.</_>
                <_>
                  4 19 11 5 2.</_></rects>
              <tilted>0</tilted></feature>
            <threshold>0.1088572964072228</threshold>
            <left_val>-1.</left_val>
            <right_val>1.0000020265579224</right_val></_></_></trees>
      <stage_threshold>1.0000020265579224</stage_threshold>
      <parent>1</parent>
      <next>-1</next></_></stages></myhaar>
</opencv_storage>
